digraph Tree {
node [shape=box] ;
0 [label="EDAD <= 51.5\nentropy = 0.335\nsamples = 879608\nvalue = [825207, 54401]\nclass = No vive"] ;
1 [label="DIABETES <= 1.5\nentropy = 0.144\nsamples = 633888\nvalue = [620865, 13023]\nclass = No vive"] ;
0 -> 1 [labeldistance=2.5, labelangle=45, headlabel="True"] ;
2 [label="ORIGEN <= 1.5\nentropy = 0.445\nsamples = 37380\nvalue = [33920, 3460]\nclass = No vive"] ;
1 -> 2 ;
3 [label="RENAL_CRONICA <= 1.5\nentropy = 0.587\nsamples = 14703\nvalue = [12631, 2072]\nclass = No vive"] ;
2 -> 3 ;
4 [label="EDAD <= 32.5\nentropy = 0.868\nsamples = 1034\nvalue = [735, 299]\nclass = No vive"] ;
3 -> 4 ;
5 [label="entropy = 0.523\nsamples = 85\nvalue = [75, 10]\nclass = No vive"] ;
4 -> 5 ;
6 [label="entropy = 0.887\nsamples = 949\nvalue = [660, 289]\nclass = No vive"] ;
4 -> 6 ;
7 [label="SEXO <= 1.5\nentropy = 0.557\nsamples = 13669\nvalue = [11896, 1773]\nclass = No vive"] ;
3 -> 7 ;
8 [label="entropy = 0.471\nsamples = 6602\nvalue = [5937, 665]\nclass = No vive"] ;
7 -> 8 ;
9 [label="entropy = 0.627\nsamples = 7067\nvalue = [5959, 1108]\nclass = No vive"] ;
7 -> 9 ;
10 [label="RENAL_CRONICA <= 1.5\nentropy = 0.332\nsamples = 22677\nvalue = [21289, 1388]\nclass = No vive"] ;
2 -> 10 ;
11 [label="CARDIOVASCULAR <= 1.5\nentropy = 0.696\nsamples = 913\nvalue = [742, 171]\nclass = No vive"] ;
10 -> 11 ;
12 [label="entropy = 0.369\nsamples = 141\nvalue = [131, 10]\nclass = No vive"] ;
11 -> 12 ;
13 [label="entropy = 0.739\nsamples = 772\nvalue = [611, 161]\nclass = No vive"] ;
11 -> 13 ;
14 [label="SEXO <= 1.5\nentropy = 0.311\nsamples = 21764\nvalue = [20547, 1217]\nclass = No vive"] ;
10 -> 14 ;
15 [label="entropy = 0.244\nsamples = 10650\nvalue = [10221, 429]\nclass = No vive"] ;
14 -> 15 ;
16 [label="entropy = 0.369\nsamples = 11114\nvalue = [10326, 788]\nclass = No vive"] ;
14 -> 16 ;
17 [label="EDAD <= 39.5\nentropy = 0.119\nsamples = 596508\nvalue = [586945, 9563]\nclass = No vive"] ;
1 -> 17 ;
18 [label="RENAL_CRONICA <= 1.5\nentropy = 0.073\nsamples = 397879\nvalue = [394354, 3525]\nclass = No vive"] ;
17 -> 18 ;
19 [label="HIPERTENSION <= 1.5\nentropy = 0.461\nsamples = 3011\nvalue = [2717, 294]\nclass = No vive"] ;
18 -> 19 ;
20 [label="entropy = 0.59\nsamples = 1096\nvalue = [940, 156]\nclass = No vive"] ;
19 -> 20 ;
21 [label="entropy = 0.374\nsamples = 1915\nvalue = [1777, 138]\nclass = No vive"] ;
19 -> 21 ;
22 [label="ORIGEN <= 1.5\nentropy = 0.068\nsamples = 394868\nvalue = [391637, 3231]\nclass = No vive"] ;
18 -> 22 ;
23 [label="entropy = 0.11\nsamples = 124574\nvalue = [122753, 1821]\nclass = No vive"] ;
22 -> 23 ;
24 [label="entropy = 0.047\nsamples = 270294\nvalue = [268884, 1410]\nclass = No vive"] ;
22 -> 24 ;
25 [label="ORIGEN <= 1.5\nentropy = 0.196\nsamples = 198629\nvalue = [192591, 6038]\nclass = No vive"] ;
17 -> 25 ;
26 [label="SEXO <= 1.5\nentropy = 0.297\nsamples = 65547\nvalue = [62099, 3448]\nclass = No vive"] ;
25 -> 26 ;
27 [label="entropy = 0.187\nsamples = 33669\nvalue = [32711, 958]\nclass = No vive"] ;
26 -> 27 ;
28 [label="entropy = 0.395\nsamples = 31878\nvalue = [29388, 2490]\nclass = No vive"] ;
26 -> 28 ;
29 [label="SEXO <= 1.5\nentropy = 0.138\nsamples = 133082\nvalue = [130492, 2590]\nclass = No vive"] ;
25 -> 29 ;
30 [label="entropy = 0.085\nsamples = 67796\nvalue = [67070, 726]\nclass = No vive"] ;
29 -> 30 ;
31 [label="entropy = 0.187\nsamples = 65286\nvalue = [63422, 1864]\nclass = No vive"] ;
29 -> 31 ;
32 [label="EDAD <= 63.5\nentropy = 0.654\nsamples = 245720\nvalue = [204342, 41378]\nclass = No vive"] ;
0 -> 32 [labeldistance=2.5, labelangle=-45, headlabel="False"] ;
33 [label="ORIGEN <= 1.5\nentropy = 0.501\nsamples = 145979\nvalue = [129878, 16101]\nclass = No vive"] ;
32 -> 33 ;
34 [label="DIABETES <= 1.5\nentropy = 0.657\nsamples = 54128\nvalue = [44947, 9181]\nclass = No vive"] ;
33 -> 34 ;
35 [label="RENAL_CRONICA <= 1.5\nentropy = 0.796\nsamples = 15589\nvalue = [11843, 3746]\nclass = No vive"] ;
34 -> 35 ;
36 [label="entropy = 0.953\nsamples = 1576\nvalue = [988, 588]\nclass = No vive"] ;
35 -> 36 ;
37 [label="entropy = 0.77\nsamples = 14013\nvalue = [10855, 3158]\nclass = No vive"] ;
35 -> 37 ;
38 [label="SEXO <= 1.5\nentropy = 0.587\nsamples = 38539\nvalue = [33104, 5435]\nclass = No vive"] ;
34 -> 38 ;
39 [label="entropy = 0.456\nsamples = 17829\nvalue = [16116, 1713]\nclass = No vive"] ;
38 -> 39 ;
40 [label="entropy = 0.679\nsamples = 20710\nvalue = [16988, 3722]\nclass = No vive"] ;
38 -> 40 ;
41 [label="DIABETES <= 1.5\nentropy = 0.386\nsamples = 91851\nvalue = [84931, 6920]\nclass = No vive"] ;
33 -> 41 ;
42 [label="RENAL_CRONICA <= 1.5\nentropy = 0.565\nsamples = 21305\nvalue = [18475, 2830]\nclass = No vive"] ;
41 -> 42 ;
43 [label="entropy = 0.854\nsamples = 1370\nvalue = [988, 382]\nclass = No vive"] ;
42 -> 43 ;
44 [label="entropy = 0.537\nsamples = 19935\nvalue = [17487, 2448]\nclass = No vive"] ;
42 -> 44 ;
45 [label="SEXO <= 1.5\nentropy = 0.319\nsamples = 70546\nvalue = [66456, 4090]\nclass = No vive"] ;
41 -> 45 ;
46 [label="entropy = 0.224\nsamples = 34299\nvalue = [33061, 1238]\nclass = No vive"] ;
45 -> 46 ;
47 [label="entropy = 0.398\nsamples = 36247\nvalue = [33395, 2852]\nclass = No vive"] ;
45 -> 47 ;
48 [label="ORIGEN <= 1.5\nentropy = 0.817\nsamples = 99741\nvalue = [74464, 25277]\nclass = No vive"] ;
32 -> 48 ;
49 [label="EDAD <= 70.5\nentropy = 0.919\nsamples = 43594\nvalue = [29053, 14541]\nclass = No vive"] ;
48 -> 49 ;
50 [label="SEXO <= 1.5\nentropy = 0.874\nsamples = 19474\nvalue = [13751, 5723]\nclass = No vive"] ;
49 -> 50 ;
51 [label="entropy = 0.818\nsamples = 8328\nvalue = [6210, 2118]\nclass = No vive"] ;
50 -> 51 ;
52 [label="entropy = 0.908\nsamples = 11146\nvalue = [7541, 3605]\nclass = No vive"] ;
50 -> 52 ;
53 [label="SEXO <= 1.5\nentropy = 0.947\nsamples = 24120\nvalue = [15302, 8818]\nclass = No vive"] ;
49 -> 53 ;
54 [label="entropy = 0.919\nsamples = 10629\nvalue = [7078, 3551]\nclass = No vive"] ;
53 -> 54 ;
55 [label="entropy = 0.965\nsamples = 13491\nvalue = [8224, 5267]\nclass = No vive"] ;
53 -> 55 ;
56 [label="EDAD <= 70.5\nentropy = 0.704\nsamples = 56147\nvalue = [45411, 10736]\nclass = No vive"] ;
48 -> 56 ;
57 [label="DIABETES <= 1.5\nentropy = 0.625\nsamples = 26940\nvalue = [22728, 4212]\nclass = No vive"] ;
56 -> 57 ;
58 [label="entropy = 0.728\nsamples = 9025\nvalue = [7191, 1834]\nclass = No vive"] ;
57 -> 58 ;
59 [label="entropy = 0.565\nsamples = 17915\nvalue = [15537, 2378]\nclass = No vive"] ;
57 -> 59 ;
60 [label="SEXO <= 1.5\nentropy = 0.766\nsamples = 29207\nvalue = [22683, 6524]\nclass = No vive"] ;
56 -> 60 ;
61 [label="entropy = 0.696\nsamples = 13723\nvalue = [11149, 2574]\nclass = No vive"] ;
60 -> 61 ;
62 [label="entropy = 0.819\nsamples = 15484\nvalue = [11534, 3950]\nclass = No vive"] ;
60 -> 62 ;
}